digraph Tree {
node [shape=box, style="rounded", color="black", fontname=helvetica] ;
edge [fontname=helvetica] ;
0 [label="won_sag <= 0.5\nentropy = 0.7\nsamples = 214\nvalue = [263, 65]"] ;
1 [label="rottencritic_numVotes <= 23.5\nentropy = 0.7\nsamples = 199\nvalue = [254, 57]"] ;
0 -> 1 [labeldistance=2.5, labelangle=45, headlabel="True"] ;
2 [label="entropy = 0.0\nsamples = 40\nvalue = [61, 0]"] ;
1 -> 2 ;
3 [label="won_dga <= 0.5\nentropy = 0.8\nsamples = 159\nvalue = [193, 57]"] ;
1 -> 3 ;
4 [label="rotten_numVotes <= 33221168.0\nentropy = 0.5\nsamples = 127\nvalue = [176, 19]"] ;
3 -> 4 ;
5 [label="won_cc <= 0.5\nentropy = 0.4\nsamples = 126\nvalue = [176, 17]"] ;
4 -> 5 ;
6 [label="runtimeMinutes <= 109.5\nentropy = 0.3\nsamples = 119\nvalue = [168, 11]"] ;
5 -> 6 ;
7 [label="entropy = 0.0\nsamples = 26\nvalue = [41, 0]"] ;
6 -> 7 ;
8 [label="runtimeMinutes <= 110.5\nentropy = 0.4\nsamples = 93\nvalue = [127, 11]"] ;
6 -> 8 ;
9 [label="won_nbra <= 0.5\nentropy = 1.0\nsamples = 4\nvalue = [3, 3]"] ;
8 -> 9 ;
10 [label="MovieLensrating <= 3.6\nentropy = 0.8\nsamples = 2\nvalue = [1, 3]"] ;
9 -> 10 ;
11 [label="entropy = 0.0\nsamples = 1\nvalue = [1, 0]"] ;
10 -> 11 ;
12 [label="entropy = 0.0\nsamples = 1\nvalue = [0, 3]"] ;
10 -> 12 ;
13 [label="entropy = 0.0\nsamples = 2\nvalue = [2, 0]"] ;
9 -> 13 ;
14 [label="RottenCriticRating <= 82.5\nentropy = 0.3\nsamples = 89\nvalue = [124, 8]"] ;
8 -> 14 ;
15 [label="rottencritic_numVotes <= 41.0\nentropy = 0.9\nsamples = 16\nvalue = [17, 8]"] ;
14 -> 15 ;
16 [label="runtimeMinutes <= 117.5\nentropy = 0.6\nsamples = 4\nvalue = [1, 6]"] ;
15 -> 16 ;
17 [label="entropy = 0.0\nsamples = 1\nvalue = [1, 0]"] ;
16 -> 17 ;
18 [label="entropy = 0.0\nsamples = 3\nvalue = [0, 6]"] ;
16 -> 18 ;
19 [label="RottenRating <= 80.5\nentropy = 0.5\nsamples = 12\nvalue = [16, 2]"] ;
15 -> 19 ;
20 [label="entropy = 0.0\nsamples = 4\nvalue = [9, 0]"] ;
19 -> 20 ;
21 [label="rotten_numVotes <= 42947.0\nentropy = 0.8\nsamples = 8\nvalue = [7, 2]"] ;
19 -> 21 ;
22 [label="rottencritic_numVotes <= 343.5\nentropy = 1.0\nsamples = 3\nvalue = [2, 2]"] ;
21 -> 22 ;
23 [label="entropy = 0.0\nsamples = 2\nvalue = [0, 2]"] ;
22 -> 23 ;
24 [label="entropy = 0.0\nsamples = 1\nvalue = [2, 0]"] ;
22 -> 24 ;
25 [label="entropy = 0.0\nsamples = 5\nvalue = [5, 0]"] ;
21 -> 25 ;
26 [label="entropy = 0.0\nsamples = 73\nvalue = [107, 0]"] ;
14 -> 26 ;
27 [label="imdb_numVotes <= 268494.0\nentropy = 1.0\nsamples = 7\nvalue = [8, 6]"] ;
5 -> 27 ;
28 [label="entropy = 0.0\nsamples = 1\nvalue = [0, 3]"] ;
27 -> 28 ;
29 [label="imdb_numVotes <= 500957.0\nentropy = 0.8\nsamples = 6\nvalue = [8, 3]"] ;
27 -> 29 ;
30 [label="entropy = 0.0\nsamples = 3\nvalue = [7, 0]"] ;
29 -> 30 ;
31 [label="imdb_numVotes <= 534741.0\nentropy = 0.8\nsamples = 3\nvalue = [1, 3]"] ;
29 -> 31 ;
32 [label="entropy = 0.0\nsamples = 1\nvalue = [0, 2]"] ;
31 -> 32 ;
33 [label="imdb_numVotes <= 563709.0\nentropy = 1.0\nsamples = 2\nvalue = [1, 1]"] ;
31 -> 33 ;
34 [label="entropy = 0.0\nsamples = 1\nvalue = [1, 0]"] ;
33 -> 34 ;
35 [label="entropy = 0.0\nsamples = 1\nvalue = [0, 1]"] ;
33 -> 35 ;
36 [label="entropy = 0.0\nsamples = 1\nvalue = [0, 2]"] ;
4 -> 36 ;
37 [label="runtimeMinutes <= 193.0\nentropy = 0.9\nsamples = 32\nvalue = [17, 38]"] ;
3 -> 37 ;
38 [label="rotten_numVotes <= 516607.0\nentropy = 0.8\nsamples = 30\nvalue = [12, 38]"] ;
37 -> 38 ;
39 [label="rottencritic_numVotes <= 121.0\nentropy = 0.9\nsamples = 25\nvalue = [12, 25]"] ;
38 -> 39 ;
40 [label="runtimeMinutes <= 136.0\nentropy = 0.7\nsamples = 20\nvalue = [6, 24]"] ;
39 -> 40 ;
41 [label="imdb_numVotes <= 22847.5\nentropy = 0.9\nsamples = 14\nvalue = [6, 15]"] ;
40 -> 41 ;
42 [label="entropy = 0.0\nsamples = 4\nvalue = [0, 5]"] ;
41 -> 42 ;
43 [label="imdb_numVotes <= 27333.5\nentropy = 1.0\nsamples = 10\nvalue = [6, 10]"] ;
41 -> 43 ;
44 [label="entropy = 0.0\nsamples = 1\nvalue = [2, 0]"] ;
43 -> 44 ;
45 [label="RottenRating <= 89.5\nentropy = 0.9\nsamples = 9\nvalue = [4, 10]"] ;
43 -> 45 ;
46 [label="entropy = 0.0\nsamples = 3\nvalue = [0, 5]"] ;
45 -> 46 ;
47 [label="rottencritic_numVotes <= 75.5\nentropy = 1.0\nsamples = 6\nvalue = [4, 5]"] ;
45 -> 47 ;
48 [label="MovieLensrating <= 4.3\nentropy = 1.0\nsamples = 5\nvalue = [4, 3]"] ;
47 -> 48 ;
49 [label="RottenCriticRating <= 91.5\nentropy = 0.8\nsamples = 4\nvalue = [1, 3]"] ;
48 -> 49 ;
50 [label="rotten_numVotes <= 135001.0\nentropy = 1.0\nsamples = 2\nvalue = [1, 1]"] ;
49 -> 50 ;
51 [label="entropy = 0.0\nsamples = 1\nvalue = [1, 0]"] ;
50 -> 51 ;
52 [label="entropy = 0.0\nsamples = 1\nvalue = [0, 1]"] ;
50 -> 52 ;
53 [label="entropy = 0.0\nsamples = 2\nvalue = [0, 2]"] ;
49 -> 53 ;
54 [label="entropy = 0.0\nsamples = 1\nvalue = [3, 0]"] ;
48 -> 54 ;
55 [label="entropy = 0.0\nsamples = 1\nvalue = [0, 2]"] ;
47 -> 55 ;
56 [label="entropy = 0.0\nsamples = 6\nvalue = [0, 9]"] ;
40 -> 56 ;
57 [label="IMDBRating <= 8.0\nentropy = 0.6\nsamples = 5\nvalue = [6, 1]"] ;
39 -> 57 ;
58 [label="entropy = 0.0\nsamples = 3\nvalue = [5, 0]"] ;
57 -> 58 ;
59 [label="runtimeMinutes <= 125.0\nentropy = 1.0\nsamples = 2\nvalue = [1, 1]"] ;
57 -> 59 ;
60 [label="entropy = 0.0\nsamples = 1\nvalue = [1, 0]"] ;
59 -> 60 ;
61 [label="entropy = 0.0\nsamples = 1\nvalue = [0, 1]"] ;
59 -> 61 ;
62 [label="entropy = 0.0\nsamples = 5\nvalue = [0, 13]"] ;
38 -> 62 ;
63 [label="entropy = 0.0\nsamples = 2\nvalue = [5, 0]"] ;
37 -> 63 ;
64 [label="imdb_numVotes <= 624595.5\nentropy = 1.0\nsamples = 15\nvalue = [9, 8]"] ;
0 -> 64 [labeldistance=2.5, labelangle=-45, headlabel="False"] ;
65 [label="won_cc <= 0.5\nentropy = 0.8\nsamples = 12\nvalue = [9, 3]"] ;
64 -> 65 ;
66 [label="rottencritic_numVotes <= 228.5\nentropy = 0.5\nsamples = 10\nvalue = [9, 1]"] ;
65 -> 66 ;
67 [label="entropy = 0.0\nsamples = 5\nvalue = [5, 0]"] ;
66 -> 67 ;
68 [label="runtimeMinutes <= 113.5\nentropy = 0.7\nsamples = 5\nvalue = [4, 1]"] ;
66 -> 68 ;
69 [label="entropy = 0.0\nsamples = 1\nvalue = [0, 1]"] ;
68 -> 69 ;
70 [label="entropy = 0.0\nsamples = 4\nvalue = [4, 0]"] ;
68 -> 70 ;
71 [label="entropy = 0.0\nsamples = 2\nvalue = [0, 2]"] ;
65 -> 71 ;
72 [label="entropy = 0.0\nsamples = 3\nvalue = [0, 5]"] ;
64 -> 72 ;
}